svm_type c_svc
kernel_type rbf
gamma 0.1
nr_class 2
total_sv 25
rho -0.244904
label 0 1
nr_sv 13 12
SV
0.9173971831934643 1:1 2:1 3:0 4:0 5:2 6:0 7:0 8:0 9:0 10:0 
1 1:0 2:1 3:1 4:0 5:2 6:2 7:0 8:0 9:0 10:0 
1 1:0 2:0 3:1 4:0 5:2 6:2 7:2 8:0 9:1 10:0 
1 1:1 2:0 3:0 4:1 5:2 6:0 7:2 8:0 9:0 10:0 
1 1:0 2:0 3:0 4:1 5:2 6:2 7:2 8:0 9:1 10:0 
0.5138200935017799 1:1 2:1 3:1 4:1 5:2 6:0 7:0 8:0 9:0 10:0 
0.1682957787263086 1:1 2:1 3:1 4:0 5:2 6:0 7:0 8:0 9:0 10:0 
1 1:0 2:0 3:1 4:0 5:2 6:2 7:2 8:0 9:0 10:0 
0.1358783398563327 1:1 2:0 3:0 4:0 5:2 6:0 7:2 8:0 9:0 10:0 
1 1:0 2:0 3:0 4:0 5:2 6:2 7:2 8:0 9:0 10:0 
1 1:0 2:1 3:0 4:1 5:2 6:2 7:0 8:0 9:1 10:1 
1 1:0 2:1 3:0 4:0 5:2 6:2 7:0 8:0 9:1 10:1 
1 1:0 2:1 3:0 4:0 5:2 6:2 7:0 8:0 9:1 10:1 
-1 1:0 2:0 3:0 4:1 5:1 6:2 7:2 8:0 9:1 10:0 
-1 1:0 2:0 3:0 4:1 5:1 6:1 7:2 8:0 9:1 10:0 
-1 1:0 2:0 3:1 4:1 5:1 6:1 7:2 8:1 9:1 10:0 
-1 1:0 2:1 3:0 4:0 5:1 6:2 7:0 8:0 9:1 10:0 
-1 1:0 2:1 3:0 4:0 5:1 6:1 7:0 8:0 9:1 10:0 
-0.8645866112283719 1:0 2:1 3:1 4:0 5:1 6:1 7:0 8:1 9:1 10:0 
-0.6174710633608789 1:0 2:1 3:0 4:1 5:1 6:2 7:0 8:1 9:1 10:0 
-0.2533337206886347 1:0 2:1 3:1 4:1 5:1 6:1 7:0 8:1 9:1 10:0 
-1 1:0 2:0 3:0 4:0 5:2 6:2 7:2 8:0 9:1 10:1 
-1 1:0 2:1 3:1 4:0 5:2 6:2 7:0 8:0 9:0 10:1 
-1 1:0 2:1 3:0 4:0 5:2 6:2 7:0 8:0 9:1 10:1 
-1 1:0 2:0 3:0 4:0 5:2 6:1 7:2 8:0 9:1 10:1 
